{"learner":{"attributes":{"best_iteration":"9","best_ntree_limit":"10","scikit_learn":"{\"use_label_encoder\": false, \"n_estimators\": 10, \"objective\": \"multi:softmax\", \"max_depth\": 2, \"max_leaves\": null, \"max_bin\": null, \"grow_policy\": null, \"learning_rate\": null, \"verbosity\": null, \"booster\": null, \"tree_method\": null, \"gamma\": null, \"min_child_weight\": null, \"max_delta_step\": null, \"subsample\": null, \"sampling_method\": null, \"colsample_bytree\": null, \"colsample_bylevel\": null, \"colsample_bynode\": null, \"reg_alpha\": null, \"reg_lambda\": null, \"scale_pos_weight\": null, \"base_score\": null, \"missing\": NaN, \"num_parallel_tree\": null, \"random_state\": null, \"n_jobs\": null, \"monotone_constraints\": null, \"interaction_constraints\": null, \"importance_type\": null, \"gpu_id\": null, \"validate_parameters\": null, \"predictor\": null, \"enable_categorical\": false, \"max_cat_to_onehot\": null, \"eval_metric\": null, \"early_stopping_rounds\": null, \"callbacks\": null, \"kwargs\": {\"num_class\": 3}, \"classes_\": [0, 1, 2], \"n_classes_\": 3, \"evals_result_\": {\"validation_0\": {\"mlogloss\": [0.8935651163621382, 0.717009503624656, 0.6090470218658447, 0.5325218886678869, 0.47364956173029815, 0.4304454405741258, 0.3969049287926067, 0.37067849454554647, 0.35092542865059595, 0.3304403644258326]}, \"validation_1\": {\"mlogloss\": [0.9265375180520873, 0.7513538961825164, 0.65007835281068, 0.5897029785142429, 0.5302335758140122, 0.4934595587892809, 0.4531815531461135, 0.4419306793074677, 0.42036955944005994, 0.4043538654628007]}}, \"_estimator_type\": \"classifier\"}"},"feature_names":["bill_length_mm","bill_depth_mm","flipper_length_mm","body_mass_g","species_Adelie","species_Chinstrap","species_Gentoo","island_Biscoe","island_Dream","island_Torgersen"],"feature_types":["float","float","float","float","int","int","int","int","int","int"],"gradient_booster":{"model":{"gbtree_model_param":{"num_parallel_tree":"1","num_trees":"30","size_leaf_vector":"0"},"tree_info":[0,1,2,0,1,2,0,1,2,0,1,2,0,1,2,0,1,2,0,1,2,0,1,2,0,1,2,0,1,2],"trees":[{"base_weights":[3.5166815E-1,6.670807E-1,-4.6964863E-1,1.073501E0,-6.0606107E-2,-1.9108285E-1,-7.0909095E-1],"categories":[],"categories_nodes":[],"categories_segments":[],"categories_sizes":[],"default_left":[0,0,0,0,0,0,0],"id":0,"left_children":[1,3,5,-1,-1,-1,-1],"loss_changes":[3.223446E1,2.6517956E1,2.1841974E0,0E0,0E0,0E0,0E0],"parents":[2147483647,0,0,1,1,2,2],"right_children":[2,4,6,-1,-1,-1,-1],"split_conditions":[4.8300003E1,1.805E1,5.175E3,3.220503E-1,-1.8181833E-2,-5.7324857E-2,-2.127273E-1],"split_indices":[0,1,3,0,0,0,0],"split_type":[0,0,0,0,0,0,0],"sum_hessian":[1.2222221E2,8.844444E1,3.3777775E1,5.6444443E1,3.1999998E1,1.6444443E1,1.7333332E1],"tree_param":{"num_deleted":"0","num_feature":"10","num_nodes":"7","size_leaf_vector":"0"}},{"base_weights":[3.0297562E-1,-3.321038E-2,1.190164E0,-4.0353987E-1,7.8210115E-1,-2.5544848E-8,1.2389078E0],"categories":[],"categories_nodes":[],"categories_segments":[],"categories_sizes":[],"default_left":[1,1,0,0,0,0,0],"id":1,"left_children":[1,3,5,-1,-1,-1,-1],"loss_changes":[3.679182E1,2.7590305E1,1.9660034E0,0E0,0E0,0E0,0E0],"parents":[2147483647,0,0,1,1,2,2],"right_children":[2,4,6,-1,-1,-1,-1],"split_conditions":[4.8300003E1,1.8349998E1,1.905E2,-1.21061966E-1,2.3463036E-1,-7.663455E-9,3.7167236E-1],"split_indices":[0,1,2,0,0,0,0],"split_type":[0,0,0,0,0,0,0],"sum_hessian":[1.2222221E2,8.933333E1,3.2888885E1,6.1777775E1,2.7555553E1,1.3333333E0,3.1555553E1],"tree_param":{"num_deleted":"0","num_feature":"10","num_nodes":"7","size_leaf_vector":"0"}},{"base_weights":[-6.546439E-1,2.7272725E-1,-6.774194E-1,-4.2857146E-1,8.571428E-1,-3.1578952E-1,-6.9141763E-1],"categories":[],"categories_nodes":[],"categories_segments":[],"categories_sizes":[],"default_left":[1,0,0,0,0,0,0],"id":2,"left_children":[1,3,5,-1,-1,-1,-1],"loss_changes":[2.7873726E0,1.8701298E0,3.9193344E-1,0E0,0E0,0E0,0E0],"parents":[2147483647,0,0,1,1,2,2],"right_children":[2,4,6,-1,-1,-1,-1],"split_conditions":[3.425E1,3.405E1,1.805E2,-1.2857145E-1,2.5714284E-1,-9.473686E-2,-2.074253E-1],"split_indices":[0,0,2,0,0,0,0],"split_type":[0,0,0,0,0,0,0],"sum_hessian":[1.2222221E2,2.6666665E0,1.1955555E2,1.3333333E0,1.3333333E0,5.333333E0,1.1422221E2],"tree_param":{"num_deleted":"0","num_feature":"10","num_nodes":"7","size_leaf_vector":"0"}},{"base_weights":[2.6522118E-1,8.388639E-1,-6.652265E-2,9.801058E-1,-5.735893E-1,8.175862E-1,-4.3445608E-1],"categories":[],"categories_nodes":[],"categories_segments":[],"categories_sizes":[],"default_left":[0,0,0,0,0,0,0],"id":3,"left_children":[1,3,5,-1,-1,-1,-1],"loss_changes":[2.4032818E1,9.786785E0,2.662428E1,0E0,0E0,0E0,0E0],"parents":[2147483647,0,0,1,1,2,2],"right_children":[2,4,6,-1,-1,-1,-1],"split_conditions":[3.7125E3,1.8849998E1,1.485E1,2.9403177E-1,-1.720768E-1,2.4527587E-1,-1.3033684E-1],"split_indices":[3,1,1,0,0,0,0],"split_type":[0,0,0,0,0,0,0],"sum_hessian":[1.2499426E2,4.5239193E1,7.975507E1,4.14049E1,3.8342936E0,2.3078218E1,5.6676853E1],"tree_param":{"num_deleted":"0","num_feature":"10","num_nodes":"7","size_leaf_vector":"0"}},{"base_weights":[2.3369241E-1,-3.995372E-1,5.6684214E-1,-6.746382E-1,4.1088134E-1,-4.718527E-1,9.143931E-1],"categories":[],"categories_nodes":[],"categories_segments":[],"categories_sizes":[],"default_left":[1,1,0,0,0,0,0],"id":4,"left_children":[1,3,5,-1,-1,-1,-1],"loss_changes":[2.6581875E1,1.0009982E1,3.0132858E1,0E0,0E0,0E0,0E0],"parents":[2147483647,0,0,1,1,2,2],"right_children":[2,4,6,-1,-1,-1,-1],"split_conditions":[3.7125E3,1.855E1,1.485E1,-2.0239148E-1,1.2326441E-1,-1.4155582E-1,2.7431795E-1],"split_indices":[3,1,1,0,0,0,0],"split_type":[0,0,0,0,0,0,0],"sum_hessian":[1.2393063E2,4.2655163E1,8.1275475E1,3.1970236E1,1.0684929E1,2.0287218E1,6.0988255E1],"tree_param":{"num_deleted":"0","num_feature":"10","num_nodes":"7","size_leaf_vector":"0"}},{"base_weights":[-5.765431E-1,2.412773E-1,-5.994658E-1,-3.797776E-1,6.997389E-1,-2.6119864E-1,-6.136642E-1],"categories":[],"categories_nodes":[],"categories_segments":[],"categories_sizes":[],"default_left":[1,0,0,0,0,0,0],"id":5,"left_children":[1,3,5,-1,-1,-1,-1],"loss_changes":[2.1804924E0,1.3118227E0,3.4845352E-1,0E0,0E0,0E0,0E0],"parents":[2147483647,0,0,1,1,2,2],"right_children":[2,4,6,-1,-1,-1,-1],"split_conditions":[3.425E1,3.405E1,1.805E2,-1.1393329E-1,2.0992169E-1,-7.83596E-2,-1.8409927E-1],"split_indices":[0,0,2,0,0,0,0],"split_type":[0,0,0,0,0,0,0],"sum_hessian":[1.07598465E2,2.6739297E0,1.0492454E2,1.2084837E0,1.465446E0,5.008042E0,9.99165E1],"tree_param":{"num_deleted":"0","num_feature":"10","num_nodes":"7","size_leaf_vector":"0"}},{"base_weights":[2.1375293E-1,3.5327533E-1,-6.5482485E-1,5.5433893E-1,-4.6080294E-1],"categories":[],"categories_nodes":[],"categories_segments":[],"categories_sizes":[],"default_left":[0,0,0,0,0],"id":6,"left_children":[1,3,-1,-1,-1],"loss_changes":[1.5019728E1,1.7571453E1,0E0,0E0,0E0],"parents":[2147483647,0,0,1,1],"right_children":[2,4,-1,-1,-1],"split_conditions":[5.225E3,1.8849998E1,-1.9644746E-1,1.6630168E-1,-1.3824089E-1],"split_indices":[3,1,0,0,0],"split_type":[0,0,0,0,0],"sum_hessian":[1.2103051E2,1.04790886E2,1.623962E1,8.42914E1,2.0499493E1],"tree_param":{"num_deleted":"0","num_feature":"10","num_nodes":"5","size_leaf_vector":"0"}},{"base_weights":[1.8647784E-1,-3.3436832E-1,4.3200287E-1,-6.054559E-1,3.4750107E-1,-3.9949504E-1,6.7621094E-1],"categories":[],"categories_nodes":[],"categories_segments":[],"categories_sizes":[],"default_left":[1,1,0,0,0,0,0],"id":7,"left_children":[1,3,5,-1,-1,-1,-1],"loss_changes":[1.5569241E1,7.457607E0,1.7004574E1,0E0,0E0,0E0,0E0],"parents":[2147483647,0,0,1,1,2,2],"right_children":[2,4,6,-1,-1,-1,-1],"split_conditions":[3.7125E3,1.855E1,1.485E1,-1.8163677E-1,1.0425033E-1,-1.1984851E-1,2.0286329E-1],"split_indices":[3,1,1,0,0,0,0],"split_type":[0,0,0,0,0,0,0],"sum_hessian":[1.19618546E2,3.8206684E1,8.141186E1,2.741822E1,1.07884655E1,1.8337862E1,6.3073997E1],"tree_param":{"num_deleted":"0","num_feature":"10","num_nodes":"7","size_leaf_vector":"0"}},{"base_weights":[-5.182584E-1,2.2651634E-1,-5.4168564E-1,-3.378047E-1,6.056384E-1,-2.0121624E-1,-5.575224E-1],"categories":[],"categories_nodes":[],"categories_segments":[],"categories_sizes":[],"default_left":[1,0,0,0,0,0,0],"id":8,"left_children":[1,3,5,-1,-1,-1,-1],"loss_changes":[1.7581272E0,9.670043E-1,3.793869E-1,0E0,0E0,0E0,0E0],"parents":[2147483647,0,0,1,1,2,2],"right_children":[2,4,6,-1,-1,-1,-1],"split_conditions":[3.425E1,3.405E1,1.805E2,-1.0134142E-1,1.8169153E-1,-6.0364872E-2,-1.6725673E-1],"split_indices":[0,0,2,0,0,0,0],"split_type":[0,0,0,0,0,0,0],"sum_hessian":[9.273136E1,2.5635858E0,9.016777E1,1.0739696E0,1.4896162E0,4.6168737E0,8.55509E1],"tree_param":{"num_deleted":"0","num_feature":"10","num_nodes":"7","size_leaf_vector":"0"}},{"base_weights":[1.7496662E-1,2.907245E-1,-6.165941E-1,4.338094E-1,-4.7861353E-1],"categories":[],"categories_nodes":[],"categories_segments":[],"categories_sizes":[],"default_left":[0,0,0,0,0],"id":9,"left_children":[1,3,-1,-1,-1],"loss_changes":[1.0729114E1,1.133969E1,0E0,0E0,0E0],"parents":[2147483647,0,0,1,1],"right_children":[2,4,-1,-1,-1],"split_conditions":[5.225E3,1.895E1,-1.8497823E-1,1.3014282E-1,-1.4358406E-1],"split_indices":[3,1,0,0,0],"split_type":[0,0,0,0,0],"sum_hessian":[1.1413617E2,1.00126396E2,1.40097685E1,8.479245E1,1.5333954E1],"tree_param":{"num_deleted":"0","num_feature":"10","num_nodes":"5","size_leaf_vector":"0"}},{"base_weights":[1.5678287E-1,-1.5733592E-2,7.351212E-1,-5.043738E-1,4.0502375E-1,6.9342315E-2,7.968781E-1],"categories":[],"categories_nodes":[],"categories_segments":[],"categories_sizes":[],"default_left":[1,1,0,0,0,0,0],"id":10,"left_children":[1,3,5,-1,-1,-1,-1],"loss_changes":[1.127602E1,1.8284628E1,1.0121689E0,0E0,0E0,0E0,0E0],"parents":[2147483647,0,0,1,1,2,2],"right_children":[2,4,6,-1,-1,-1,-1],"split_conditions":[4.9875E3,1.795E1,4.535E1,-1.5131214E-1,1.2150713E-1,2.0802695E-2,2.3906344E-1],"split_indices":[3,1,0,0,0,0,0],"split_type":[0,0,0,0,0,0,0],"sum_hessian":[1.11900955E2,8.6939865E1,2.4961084E1,4.0133133E1,4.6806736E1,2.2990174E0,2.2662067E1],"tree_param":{"num_deleted":"0","num_feature":"10","num_nodes":"7","size_leaf_vector":"0"}},{"base_weights":[-4.7194842E-1,2.0157832E-1,-4.954326E-1,2.4818613E-1,5.8281723E-2,-1.4941591E-1,-5.134853E-1],"categories":[],"categories_nodes":[],"categories_segments":[],"categories_sizes":[],"default_left":[1,1,0,0,0,0,0],"id":11,"left_children":[1,3,5,-1,-1,-1,-1],"loss_changes":[1.3682613E0,8.327395E-3,4.0912056E-1,0E0,0E0,0E0,0E0],"parents":[2147483647,0,0,1,1,2,2],"right_children":[2,4,6,-1,-1,-1,-1],"split_conditions":[3.425E1,3.26E1,1.805E2,7.445584E-2,1.7484518E-2,-4.4824775E-2,-1.540456E-1],"split_indices":[0,0,2,0,0,0,0],"split_type":[0,0,0,0,0,0,0],"sum_hessian":[7.919079E1,2.4126375E0,7.677815E1,1.2681813E0,1.1444561E0,4.2671065E0,7.251105E1],"tree_param":{"num_deleted":"0","num_feature":"10","num_nodes":"7","size_leaf_vector":"0"}},{"base_weights":[1.4272048E-1,4.3565717E-1,-1.0892068E-1,5.2090186E-1,-3.2984826E-1,3.9061823E-1,-4.9278587E-1],"categories":[],"categories_nodes":[],"categories_segments":[],"categories_sizes":[],"default_left":[0,0,0,0,0,0,0],"id":12,"left_children":[1,3,5,-1,-1,-1,-1],"loss_changes":[7.9740343E0,3.4272795E0,1.14374485E1,0E0,0E0,0E0,0E0],"parents":[2147483647,0,0,1,1,2,2],"right_children":[2,4,6,-1,-1,-1,-1],"split_conditions":[3.8625E3,1.895E1,1.505E1,1.5627056E-1,-9.8954484E-2,1.1718547E-1,-1.4783576E-1],"split_indices":[3,1,1,0,0,0,0],"split_type":[0,0,0,0,0,0,0],"sum_hessian":[1.0653022E2,4.888809E1,5.7642128E1,4.4277046E1,4.6110444E0,2.5039564E1,3.2602566E1],"tree_param":{"num_deleted":"0","num_feature":"10","num_nodes":"7","size_leaf_vector":"0"}},{"base_weights":[1.3569076E-1,-4.3849832E-1,2.8388873E-1,-5.471247E-1,5.4961896E-1,-3.381551E-1,4.273948E-1],"categories":[],"categories_nodes":[],"categories_segments":[],"categories_sizes":[],"default_left":[1,1,0,0,0,0,0],"id":13,"left_children":[1,3,5,-1,-1,-1,-1],"loss_changes":[9.030985E0,2.647653E0,7.625248E0,0E0,0E0,0E0,0E0],"parents":[2147483647,0,0,1,1,2,2],"right_children":[2,4,6,-1,-1,-1,-1],"split_conditions":[3.5375E3,4.83E1,1.485E1,-1.6413741E-1,1.648857E-1,-1.0144653E-1,1.2821844E-1],"split_indices":[3,0,1,0,0,0,0],"split_type":[0,0,0,0,0,0,0],"sum_hessian":[1.03667046E2,2.0865467E1,8.280158E1,1.920095E1,1.6645162E0,1.5267303E1,6.753428E1],"tree_param":{"num_deleted":"0","num_feature":"10","num_nodes":"7","size_leaf_vector":"0"}},{"base_weights":[-4.3063307E-1,1.8763714E-1,-4.551096E-1,-2.0032634E-1,-4.8798555E-1],"categories":[],"categories_nodes":[],"categories_segments":[],"categories_sizes":[],"default_left":[1,0,0,0,0],"id":14,"left_children":[1,-1,3,-1,-1],"loss_changes":[1.1237965E0,0E0,4.575615E-1,0E0,0E0],"parents":[2147483647,0,0,2,2],"right_children":[2,-1,4,-1,-1],"split_conditions":[3.425E1,5.6291144E-2,1.445E1,-6.0097903E-2,-1.4639567E-1],"split_indices":[0,0,1,0,0],"split_type":[0,0,0,0,0],"sum_hessian":[6.761785E1,2.3211157E0,6.529674E1,8.2733135E0,5.7023422E1],"tree_param":{"num_deleted":"0","num_feature":"10","num_nodes":"5","size_leaf_vector":"0"}},{"base_weights":[1.2271046E-1,2.1062408E-1,-5.758213E-1,4.086634E-1,-1.0749642E-1],"categories":[],"categories_nodes":[],"categories_segments":[],"categories_sizes":[],"default_left":[0,0,0,0,0],"id":15,"left_children":[1,3,-1,-1,-1],"loss_changes":[6.2110615E0,5.639124E0,0E0,0E0,0E0],"parents":[2147483647,0,0,1,1],"right_children":[2,4,-1,-1,-1],"split_conditions":[5.225E3,1.805E1,-1.7274639E-1,1.2259902E-1,-3.2248925E-2],"split_indices":[3,1,0,0,0],"split_type":[0,0,0,0,0],"sum_hessian":[9.8165184E1,8.781208E1,1.0353103E1,5.3945076E1,3.386701E1],"tree_param":{"num_deleted":"0","num_feature":"10","num_nodes":"5","size_leaf_vector":"0"}},{"base_weights":[1.1288868E-1,-3.1557396E-2,6.091061E-1,-4.4434723E-1,2.9180503E-1,4.4961803E-2,6.6659254E-1],"categories":[],"categories_nodes":[],"categories_segments":[],"categories_sizes":[],"default_left":[1,1,0,0,0,0,0],"id":16,"left_children":[1,3,5,-1,-1,-1,-1],"loss_changes":[6.931237E0,1.0226392E1,6.7673874E-1,0E0,0E0,0E0,0E0],"parents":[2147483647,0,0,1,1,2,2],"right_children":[2,4,6,-1,-1,-1,-1],"split_conditions":[4.9875E3,1.795E1,4.535E1,-1.3330418E-1,8.754151E-2,1.3488541E-2,1.9997777E-1],"split_indices":[3,1,0,0,0,0,0],"split_type":[0,0,0,0,0,0,0],"sum_hessian":[9.543328E1,7.464186E1,2.0791418E1,3.2622852E1,4.2019005E1,2.087531E0,1.8703886E1],"tree_param":{"num_deleted":"0","num_feature":"10","num_nodes":"7","size_leaf_vector":"0"}},{"base_weights":[-3.9193234E-1,-4.4980422E-1,-2.6382985E-2,-1.2113489E-1,-5.082286E-1,4.635784E-1,-2.2708301E-1],"categories":[],"categories_nodes":[],"categories_segments":[],"categories_sizes":[],"default_left":[1,1,1,0,0,0,0],"id":17,"left_children":[1,3,5,-1,-1,-1,-1],"loss_changes":[1.2325459E0,9.124031E-1,1.0003301E0,0E0,0E0,0E0,0E0],"parents":[2147483647,0,0,1,1,2,2],"right_children":[2,4,6,-1,-1,-1,-1],"split_conditions":[5E-1,1.445E1,1.865E2,-3.6340468E-2,-1.5246859E-1,1.3907352E-1,-6.8124905E-2],"split_indices":[9,1,2,0,0,0,0],"split_type":[0,0,0,0,0,0,0],"sum_hessian":[5.7823498E1,4.972138E1,8.102119E0,7.968357E0,4.175302E1,1.9737852E0,6.1283345E0],"tree_param":{"num_deleted":"0","num_feature":"10","num_nodes":"7","size_leaf_vector":"0"}},{"base_weights":[1.0301263E-1,3.4522697E-1,-1.1110047E-1,6.771198E-1,2.006746E-1,2.672237E-1,-4.5131406E-1],"categories":[],"categories_nodes":[],"categories_segments":[],"categories_sizes":[],"default_left":[0,0,0,0,0,0,0],"id":18,"left_children":[1,3,5,-1,-1,-1,-1],"loss_changes":[4.7899556E0,1.9382648E0,6.4774213E0,0E0,0E0,0E0,0E0],"parents":[2147483647,0,0,1,1,2,2],"right_children":[2,4,6,-1,-1,-1,-1],"split_conditions":[3.8625E3,3.715E1,1.525E1,2.0313595E-1,6.020238E-2,8.016711E-2,-1.3539423E-1],"split_indices":[3,0,1,0,0,0,0],"split_type":[0,0,0,0,0,0,0],"sum_hessian":[9.062138E1,4.2233074E1,4.8388306E1,1.1695624E1,3.0537449E1,2.30125E1,2.5375807E1],"tree_param":{"num_deleted":"0","num_feature":"10","num_nodes":"7","size_leaf_vector":"0"}},{"base_weights":[9.678656E-2,-6.381191E-2,4.6590194E-1,-5.079392E-1,8.822683E-2,2.1548656E-1,5.1950073E-1],"categories":[],"categories_nodes":[],"categories_segments":[],"categories_sizes":[],"default_left":[1,1,0,0,0,0,0],"id":19,"left_children":[1,3,5,-1,-1,-1,-1],"loss_changes":[5.2750707E0,4.2676487E0,2.4974108E-1,0E0,0E0,0E0,0E0],"parents":[2147483647,0,0,1,1,2,2],"right_children":[2,4,6,-1,-1,-1,-1],"split_conditions":[4.775E1,3.5375E3,1.505E1,-1.5238178E-1,2.6468052E-2,6.464597E-2,1.5585023E-1],"split_indices":[0,3,1,0,0,0,0],"split_type":[0,0,0,0,0,0,0],"sum_hessian":[8.74851E1,6.1537754E1,2.594735E1,1.5096838E1,4.6440914E1,5.459717E0,2.0487633E1],"tree_param":{"num_deleted":"0","num_feature":"10","num_nodes":"7","size_leaf_vector":"0"}},{"base_weights":[-3.5494196E-1,-4.1773984E-1,3.8401433E-3,-8.226897E-2,-4.8384944E-1,2.1920213E-1,-3.917259E-1],"categories":[],"categories_nodes":[],"categories_segments":[],"categories_sizes":[],"default_left":[1,1,1,0,0,0,0],"id":20,"left_children":[1,3,5,-1,-1,-1,-1],"loss_changes":[1.1443434E0,9.176822E-1,8.1389356E-1,0E0,0E0,0E0,0E0],"parents":[2147483647,0,0,1,1,2,2],"right_children":[2,4,6,-1,-1,-1,-1],"split_conditions":[5E-1,1.445E1,1.94E2,-2.468069E-2,-1.4515483E-1,6.576064E-2,-1.1751778E-1],"split_indices":[9,1,2,0,0,0,0],"split_type":[0,0,0,0,0,0,0],"sum_hessian":[4.971908E1,4.2173157E1,7.5459256E0,7.312182E0,3.4860977E1,5.174547E0,2.3713787E0],"tree_param":{"num_deleted":"0","num_feature":"10","num_nodes":"7","size_leaf_vector":"0"}},{"base_weights":[8.94882E-2,1.570101E-1,-5.404702E-1,2.3774545E-1,-3.487341E-1],"categories":[],"categories_nodes":[],"categories_segments":[],"categories_sizes":[],"default_left":[0,0,0,0,0],"id":21,"left_children":[1,3,-1,-1,-1],"loss_changes":[3.7332506E0,3.2776978E0,0E0,0E0,0E0],"parents":[2147483647,0,0,1,1],"right_children":[2,4,-1,-1,-1],"split_conditions":[5.225E3,1.895E1,-1.6214105E-1,7.132364E-2,-1.0462024E-1],"split_indices":[3,1,0,0,0],"split_type":[0,0,0,0,0],"sum_hessian":[8.477187E1,7.724333E1,7.528543E0,6.70669E1,1.0176431E1],"tree_param":{"num_deleted":"0","num_feature":"10","num_nodes":"5","size_leaf_vector":"0"}},{"base_weights":[7.944334E-2,-4.025562E-2,5.250853E-1,-4.5722818E-1,1.8004034E-1,1.3748013E-2,5.870379E-1],"categories":[],"categories_nodes":[],"categories_segments":[],"categories_sizes":[],"default_left":[1,1,0,0,0,0,0],"id":22,"left_children":[1,3,5,-1,-1,-1,-1],"loss_changes":[4.4243503E0,6.14463E0,5.4784155E-1,0E0,0E0,0E0,0E0],"parents":[2147483647,0,0,1,1,2,2],"right_children":[2,4,6,-1,-1,-1,-1],"split_conditions":[4.9875E3,1.745E1,4.535E1,-1.3716847E-1,5.4012105E-2,4.1244044E-3,1.7611139E-1],"split_indices":[3,1,0,0,0,0,0],"split_type":[0,0,0,0,0,0,0],"sum_hessian":[8.1545456E1,6.4996994E1,1.6548458E1,2.2096876E1,4.290012E1,1.920356E0,1.4628101E1],"tree_param":{"num_deleted":"0","num_feature":"10","num_nodes":"7","size_leaf_vector":"0"}},{"base_weights":[-3.20562E-1,-3.8730437E-1,1.6594877E-2,-4.902405E-1,-1.2233927E-1,3.2557625E-1,-2.4921232E-1],"categories":[],"categories_nodes":[],"categories_segments":[],"categories_sizes":[],"default_left":[1,0,1,0,0,0,0],"id":23,"left_children":[1,3,5,-1,-1,-1,-1],"loss_changes":[1.0055656E0,9.52044E-1,7.6247966E-1,0E0,0E0,0E0,0E0],"parents":[2147483647,0,0,1,1,2,2],"right_children":[2,4,6,-1,-1,-1,-1],"split_conditions":[5E-1,2.135E2,3.8199997E1,-1.4707217E-1,-3.6701784E-2,9.767288E-2,-7.47637E-2],"split_indices":[9,2,0,0,0,0,0],"split_type":[0,0,0,0,0,0,0],"sum_hessian":[4.340095E1,3.6105E1,7.295951E0,2.539075E1,1.0714249E1,3.2699802E0,4.025971E0],"tree_param":{"num_deleted":"0","num_feature":"10","num_nodes":"7","size_leaf_vector":"0"}},{"base_weights":[7.163556E-2,5.713842E-1,-7.893748E-3,7.556713E-1,9.587168E-2,4.7878765E-2,-5.07987E-1],"categories":[],"categories_nodes":[],"categories_segments":[],"categories_sizes":[],"default_left":[0,0,0,0,0,0,0],"id":24,"left_children":[1,3,5,-1,-1,-1,-1],"loss_changes":[3.1850593E0,8.915119E-1,1.9774022E0,0E0,0E0,0E0,0E0],"parents":[2147483647,0,0,1,1,2,2],"right_children":[2,4,6,-1,-1,-1,-1],"split_conditions":[3.71E1,1.895E2,5.225E3,2.2670141E-1,2.8761504E-2,1.436363E-2,-1.5239611E-1],"split_indices":[0,2,3,0,0,0,0],"split_type":[0,0,0,0,0,0,0],"sum_hessian":[7.902455E1,1.0000231E1,6.902432E1,6.782477E0,3.2177534E0,6.2912334E1,6.111988E0],"tree_param":{"num_deleted":"0","num_feature":"10","num_nodes":"7","size_leaf_vector":"0"}},{"base_weights":[7.139871E-2,-5.2195686E-1,1.4489315E-1,-6.777276E-1,3.2460058E-1,-2.6680484E-1,2.2639108E-1],"categories":[],"categories_nodes":[],"categories_segments":[],"categories_sizes":[],"default_left":[1,1,0,0,0,0,0],"id":25,"left_children":[1,3,5,-1,-1,-1,-1],"loss_changes":[3.4288394E0,1.3661752E0,2.3823032E0,0E0,0E0,0E0,0E0],"parents":[2147483647,0,0,1,1,2,2],"right_children":[2,4,6,-1,-1,-1,-1],"split_conditions":[3.71E1,1.93E1,1.485E1,-2.0331828E-1,9.7380176E-2,-8.004145E-2,6.7917325E-2],"split_indices":[0,1,1,0,0,0,0],"split_type":[0,0,0,0,0,0,0],"sum_hessian":[7.589382E1,7.691851E0,6.820197E1,6.664907E0,1.0269442E0,1.0894274E1,5.7307693E1],"tree_param":{"num_deleted":"0","num_feature":"10","num_nodes":"7","size_leaf_vector":"0"}},{"base_weights":[-2.8647706E-1,1.9799502E-1,-3.3630124E-1,-3.3588836E-1,5.874099E-1,-2.653353E-2,-3.942788E-1],"categories":[],"categories_nodes":[],"categories_segments":[],"categories_sizes":[],"default_left":[1,0,0,0,0,0,0],"id":26,"left_children":[1,3,5,-1,-1,-1,-1],"loss_changes":[1.0122075E0,1.0876596E0,6.341505E-1,0E0,0E0,0E0,0E0],"parents":[2147483647,0,0,1,1,2,2],"right_children":[2,4,6,-1,-1,-1,-1],"split_conditions":[1.805E2,1.785E2,1.445E1,-1.0076651E-1,1.7622298E-1,-7.960059E-3,-1.18283644E-1],"split_indices":[2,2,1,0,0,0,0],"split_type":[0,0,0,0,0,0,0],"sum_hessian":[3.8174946E1,3.2825696E0,3.4892376E1,1.4424462E0,1.8401234E0,5.7308292E0,2.9161545E1],"tree_param":{"num_deleted":"0","num_feature":"10","num_nodes":"7","size_leaf_vector":"0"}},{"base_weights":[6.282551E-2,2.4245179E-1,-1.00576915E-1,2.9054838E-1,-3.873881E-1,2.0733424E-1,-3.9461005E-1],"categories":[],"categories_nodes":[],"categories_segments":[],"categories_sizes":[],"default_left":[0,0,0,0,0,0,0],"id":27,"left_children":[1,3,5,-1,-1,-1,-1],"loss_changes":[2.2757666E0,1.2282989E0,3.7822921E0,0E0,0E0,0E0,0E0],"parents":[2147483647,0,0,1,1,2,2],"right_children":[2,4,6,-1,-1,-1,-1],"split_conditions":[3.8625E3,1.93E1,1.525E1,8.716452E-2,-1.16216436E-1,6.2200274E-2,-1.1838302E-1],"split_indices":[3,1,1,0,0,0,0],"split_type":[0,0,0,0,0,0,0],"sum_hessian":[7.570448E1,3.583154E1,3.9872944E1,3.378993E1,2.041613E0,1.9620861E1,2.025208E1],"tree_param":{"num_deleted":"0","num_feature":"10","num_nodes":"7","size_leaf_vector":"0"}},{"base_weights":[5.7348862E-2,-4.3362513E-2,4.65939E-1,-4.169863E-1,1.3898942E-1,1.3156301E-1,5.8071554E-1],"categories":[],"categories_nodes":[],"categories_segments":[],"categories_sizes":[],"default_left":[1,1,0,0,0,0,0],"id":28,"left_children":[1,3,5,-1,-1,-1,-1],"loss_changes":[3.0443885E0,4.1372666E0,4.8460937E-1,0E0,0E0,0E0,0E0],"parents":[2147483647,0,0,1,1,2,2],"right_children":[2,4,6,-1,-1,-1,-1],"split_conditions":[4.9875E3,1.745E1,1.485E1,-1.2509589E-1,4.1696828E-2,3.9468903E-2,1.7421466E-1],"split_indices":[3,1,1,0,0,0,0],"split_type":[0,0,0,0,0,0,0],"sum_hessian":[7.24923E1,5.8874493E1,1.3617812E1,1.8887953E1,3.9986538E1,4.028353E0,9.589459E0],"tree_param":{"num_deleted":"0","num_feature":"10","num_nodes":"7","size_leaf_vector":"0"}},{"base_weights":[-2.572495E-1,-3.3667073E-1,1.0273069E-1,-4.606107E-1,-4.6845116E-2,3.089483E-1,-3.416468E-1],"categories":[],"categories_nodes":[],"categories_segments":[],"categories_sizes":[],"default_left":[1,0,1,0,0,0,0],"id":29,"left_children":[1,3,5,-1,-1,-1,-1],"loss_changes":[1.0385692E0,1.0202403E0,7.57418E-1,0E0,0E0,0E0,0E0],"parents":[2147483647,0,0,1,1,2,2],"right_children":[2,4,6,-1,-1,-1,-1],"split_conditions":[5E-1,2.135E2,1.94E2,-1.381832E-1,-1.4053536E-2,9.268449E-2,-1.0249404E-1],"split_indices":[9,2,2,0,0,0,0],"split_type":[0,0,0,0,0,0,0],"sum_hessian":[3.4116497E1,2.8003033E1,6.113463E0,1.9202204E1,8.80083E0,4.383855E0,1.729608E0],"tree_param":{"num_deleted":"0","num_feature":"10","num_nodes":"7","size_leaf_vector":"0"}}]},"name":"gbtree"},"learner_model_param":{"base_score":"5E-1","num_class":"3","num_feature":"10","num_target":"1"},"objective":{"name":"multi:softmax","softmax_multiclass_param":{"num_class":"3"}}},"version":[1,6,1]}